tree
version=v4
num_class=1
num_tree_per_iteration=1
label_index=0
max_feature_idx=23
objective=binary sigmoid:1
feature_names=user_total_orders user_avg_days_since_prior user_median_days_since_prior user_orders_dow_mode user_orders_hour_mode user_total_items user_unique_products user_total_orders_in_prior user_reorder_rate user_avg_basket_size product_total_purchases product_unique_users product_avg_add_to_cart product_reorder_rate user_product_orders user_product_first_order user_product_last_order user_product_avg_cart_pos user_product_reorder_rate orders_since_last user_product_frequency user_product_order_ratio days_since_last_purchase price
feature_infos=[4:100] [0.23232323232323232:30] [0:30] [0:6] [0:23] [3:3725] [1:726] [3:99] [0:0.98952879581151831] [1:62] [1:354443] [1:42932] [1:36.222222222222221] [0:0.91666666666666663] [1:95] [1:99] [1:99] [1:121] [0:0.98947368421052628] [1:99] [0.01:0.98076923076923073] [0.01:0.98076923076923073] [1:99] [0.50008028179820085:14.999596136835745]
tree_sizes=3500

Tree=0
num_leaves=31
num_cat=0
split_feature=19 14 20 20 19 13 20 19 19 14 20 19 14 19 16 19 20 13 19 10 13 13 13 13 14 10 10 19 10 19
split_gain=1.01326e+07 2.00627e+06 1.18945e+06 559523 267144 259856 176299 147500 125867 104026 84938.3 76519.5 67077.2 63844.3 52622.3 52458 46167.6 44616.5 39088.2 37889.8 35793.8 32211 30883.3 30863.4 27671 23256.8 21542.4 17679.9 17440.9 16940.6
threshold=4.5000000000000009 1.5000000000000002 0.083771929824561414 0.25126262626262635 13.500000000000002 0.53971746342732174 0.16754385964912283 1.5000000000000002 1.5000000000000002 1.5000000000000002 0.50324675324675339 9.5000000000000018 3.5000000000000004 1.5000000000000002 18.500000000000004 10.500000000000002 0.038711288711288719 0.47708439777538958 2.5000000000000004 18875.500000000004 0.58048049024308979 0.37376189075218208 0.67517863873624451 0.61572161003979187 6.5000000000000009 19489.000000000004 12132.500000000002 7.5000000000000009 14921.000000000002 8.5000000000000018
decision_type=2 2 2 2 2 2 2 2 2 2 2 2 2 2 2 2 2 2 2 2 2 2 2 2 2 2 2 2 2 2
left_child=1 5 4 8 9 13 14 -7 23 17 18 24 20 -1 19 -16 26 -2 -5 -4 -10 -15 -9 -3 -8 27 -6 -19 -18 -11
right_child=2 3 6 10 16 7 11 22 12 29 -12 -13 -14 21 15 -17 28 25 -20 -21 -22 -23 -24 -25 -26 -27 -28 -29 -30 -31
leaf_value=-2.4493238626828884 -2.7624862536009838 -2.2317878042269963 -2.6083755205615837 -2.0901102458124243 -2.8271778177899733 -2.2666450375711964 -2.3873102454380208 -2.478459406794618 -2.4082973059326478 -2.5113513150760913 -2.022594625590171 -2.5411855360471809 -2.2231053501172267 -2.6963252992247027 -2.3955019464834377 -2.5870100860577168 -2.7591279860060762 -2.6358567078887356 -2.1779725087497166 -2.4835838078130283 -2.2958581740462014 -2.561237714182762 -2.3838995754412089 -2.1391521026004381 -2.2639094465169132 -2.5901042882538223 -2.7516173715597882 -2.7153606219478239 -2.6687568041083893 -2.6096008384312848
leaf_weight=9168.2170173302293 17229.565601423383 13484.876522686332 27869.255093678832 60352.471739772707 52322.770952556282 20838.718802817166 10683.881111558527 18739.892158791423 10650.924710229039 9574.1774755753577 46102.845968328416 5924.9687074683607 24225.056271482259 6884.581393674016 9230.7537514418364 5836.9707403294742 24620.772662613541 11134.900901015848 16018.118534762412 7780.8233123235404 21099.855021513999 12290.77048939839 16013.066348712891 26983.086402762681 7903.4713664315641 8061.5347181148827 11507.533536445349 18797.160760786384 6817.1156189851463 8098.6766415275633
leaf_count=98987 287701 90314 384428 243076 937476 153254 102866 212619 106761 114561 127028 74227 158282 106376 90300 78165 409562 159361 91036 89031 166790 158621 153147 133614 57717 108425 189797 297184 101792 111900
internal_value=-2.41986 -2.22681 -2.66007 -2.14712 -2.734 -2.43464 -2.49482 -2.37182 -2.2372 -2.66196 -2.07619 -2.38472 -2.28577 -2.55785 -2.54803 -2.46969 -2.78913 -2.69575 -2.10854 -2.58114 -2.33358 -2.60974 -2.43489 -2.17002 -2.33484 -2.66548 -2.81356 -2.68578 -2.73953 -2.55637
internal_weight=546247 302852 243394 218917 168164 83935.2 75230.1 55591.7 96443.8 72896 122473 24512.3 55975.8 28343.6 50717.8 15067.7 95268.2 55223.2 76370.6 35650.1 31750.8 19175.4 34753 40468 18587.4 37993.6 63830.3 29932.1 31437.9 17672.9
internal_count=5594398 1999905 3594493 1116901 2717759 883004 876734 519020 655761 1079132 461140 234810 431833 363984 641924 168465 1638627 852671 334112 473459 273551 264997 365766 223928 160583 564970 1127273 456545 511354 226461
is_linear=0
shrinkage=1


end of trees

feature_importances:
orders_since_last=10
product_reorder_rate=6
user_product_frequency=5
product_total_purchases=4
user_product_orders=4
user_product_last_order=1

parameters:
[boosting: gbdt]
[objective: binary]
[metric: binary_logloss]
[tree_learner: serial]
[device_type: cpu]
[data_sample_strategy: bagging]
[data: ]
[valid: ]
[num_iterations: 1500]
[learning_rate: 0.05]
[num_leaves: 31]
[num_threads: 0]
[seed: 42]
[deterministic: 0]
[force_col_wise: 0]
[force_row_wise: 0]
[histogram_pool_size: -1]
[max_depth: -1]
[min_data_in_leaf: 20]
[min_sum_hessian_in_leaf: 0.001]
[bagging_fraction: 0.8]
[pos_bagging_fraction: 1]
[neg_bagging_fraction: 1]
[bagging_freq: 5]
[bagging_seed: 400]
[bagging_by_query: 0]
[feature_fraction: 0.8]
[feature_fraction_bynode: 1]
[feature_fraction_seed: 30056]
[extra_trees: 0]
[extra_seed: 12879]
[early_stopping_round: 0]
[early_stopping_min_delta: 0]
[first_metric_only: 0]
[max_delta_step: 0]
[lambda_l1: 0]
[lambda_l2: 0]
[linear_lambda: 0]
[min_gain_to_split: 0]
[drop_rate: 0.1]
[max_drop: 50]
[skip_drop: 0.5]
[xgboost_dart_mode: 0]
[uniform_drop: 0]
[drop_seed: 17869]
[top_rate: 0.2]
[other_rate: 0.1]
[min_data_per_group: 100]
[max_cat_threshold: 32]
[cat_l2: 10]
[cat_smooth: 10]
[max_cat_to_onehot: 4]
[top_k: 20]
[monotone_constraints: ]
[monotone_constraints_method: basic]
[monotone_penalty: 0]
[feature_contri: ]
[forcedsplits_filename: ]
[refit_decay_rate: 0.9]
[cegb_tradeoff: 1]
[cegb_penalty_split: 0]
[cegb_penalty_feature_lazy: ]
[cegb_penalty_feature_coupled: ]
[path_smooth: 0]
[interaction_constraints: ]
[verbosity: -1]
[saved_feature_importance_type: 0]
[use_quantized_grad: 0]
[num_grad_quant_bins: 4]
[quant_train_renew_leaf: 0]
[stochastic_rounding: 1]
[linear_tree: 0]
[max_bin: 255]
[max_bin_by_feature: ]
[min_data_in_bin: 3]
[bin_construct_sample_cnt: 200000]
[data_random_seed: 175]
[is_enable_sparse: 1]
[enable_bundle: 1]
[use_missing: 1]
[zero_as_missing: 0]
[feature_pre_filter: 1]
[pre_partition: 0]
[two_round: 0]
[header: 0]
[label_column: ]
[weight_column: ]
[group_column: ]
[ignore_column: ]
[categorical_feature: ]
[forcedbins_filename: ]
[precise_float_parser: 0]
[parser_config_file: ]
[objective_seed: 16083]
[num_class: 1]
[is_unbalance: 1]
[scale_pos_weight: 1]
[sigmoid: 1]
[boost_from_average: 1]
[reg_sqrt: 0]
[alpha: 0.9]
[fair_c: 1]
[poisson_max_delta_step: 0.7]
[tweedie_variance_power: 1.5]
[lambdarank_truncation_level: 30]
[lambdarank_norm: 1]
[label_gain: ]
[lambdarank_position_bias_regularization: 0]
[eval_at: ]
[multi_error_top_k: 1]
[auc_mu_weights: ]
[num_machines: 1]
[local_listen_port: 12400]
[time_out: 120]
[machine_list_filename: ]
[machines: ]
[gpu_platform_id: -1]
[gpu_device_id: -1]
[gpu_use_dp: 0]
[num_gpu: 1]

end of parameters

pandas_categorical:[]
